tree
version=v3
num_class=1
num_tree_per_iteration=1
label_index=0
max_feature_idx=73
objective=binary sigmoid:1
feature_names=0 1 27 28 29 40 83 106 159 262 324 364 409 412 566 768 1109 1171 1257 1345 1448 1521 1524 1533 1591 1622 1641 1669 1793 1837 1870 1888 1902 2081 2090 2101 2221 2305 2318 2498 2638 2732 2751 2794 3014 3094 3099 3224 3324 3491 3558 3561 4164 4167 4242 4421 4513 4843 4879 4902 5236 5242 5380 5426 5451 5608 5756 5785 5989 6043 6166 6224 6254 6327
feature_infos=[0:1] [0:1] [0:1] [0:1] [0:1] [0:1] [0:1] [0:1] [0:1] [0:1] [0:1] [0:1] [0:1] [0:1] [0:1] [0:1] [0:1] [0:1] [0:1] [0:1] [0:1] [0:1] [0:1] [0:1] [0:1] [0:1] [0:1] [0:1] [0:1] [0:1] [0:1] [0:1] [0:1] [0:1] [0:1] [0:1] [0:1] [0:1] [0:1] [0:1] [0:1] [0:1] [0:1] [0:1] [0:1] [0:1] [0:1] [0:1] [0:1] [0:1] [0:1] [0:1] [0:1] [0:1] [0:1] [0:1] [0:1] [0:1] [0:1] [0:1] [0:1] [0:1] [0:1] [0:1] [0:1] [0:1] [0:1] [0:1] [0:1] [0:1] [0:1] [0:1] [0:1] [0:1]
tree_sizes=722 663 744 738 733 745 727 658 749 734 752 752 664 733 738 750 738 729 660 726 751 670 738 666 729 749 740 663 674 723

Tree=0
num_leaves=8
num_cat=0
split_feature=25 67 48 56 40 20 40
split_gain=0 0 0 0 0 0 0
threshold=25.128498001948444 1.6271036496957074 1.1703625190350684 6.3010146312535937 -0.030791668392952325 0.88000117245092913 -0.059064531617187513
decision_type=0 0 0 0 0 0 0
left_child=1 3 5 -1 -3 -5 -7
right_child=2 4 6 -2 -4 -6 -8
leaf_value=-0.52789699571999993 0.27272727269999997 -0.16411378557 0.58441558439999997 -0.39220183487999999 0.19736842103999999 0.059847660479999995 0.43994691438
leaf_weight=0 0 0 0 0 0 0 0
leaf_count=28 1 17 9 153 24 424 90
internal_value=0 -1.16059 0.325634 -1.70168 -0.18797 -1.01761 0.647583
internal_weight=0 0 0 0 0 0 0
internal_count=746 55 691 29 26 177 514
is_linear=0
shrinkage=0.3


Tree=1
num_leaves=7
num_cat=0
split_feature=5 9 25 23 2 24
split_gain=0 0 0 0 0 0
threshold=0.45542788084750369 3.6184534401148003 29.046831988234722 4.0238890051549063 0.63097701821389063 35.058072190269669
decision_type=0 0 0 0 0 0
left_child=1 3 5 -2 -4 -6
right_child=2 4 -1 -3 -5 -7
leaf_value=0.46863709406999998 0.068014191509999988 -0.42038502125999999 0.15849528290999998 -0.19643555460000001 -0.50526733724999995 0.34741971228000001
leaf_weight=0 0 0 0 0 0 0
leaf_count=1 79 121 492 48 6 1
internal_value=-0.000419992 0.143586 -1.44509 -0.73702 0.32504 -1.65584
internal_weight=0 0 0 0 0 0
internal_count=748 740 8 200 540 7
is_linear=0
shrinkage=0.3


Tree=2
num_leaves=8
num_cat=0
split_feature=25 13 60 66 71 32 22
split_gain=0 0 0 0 0 0 0
threshold=25.128498001948444 0.097355959045654306 0.92352449125439895 51.188098896414189 1.8909220805767517 24.937477313133954 24.749916966947268
decision_type=0 0 0 0 0 0 0
left_child=1 3 5 -1 -3 -5 -7
right_child=2 4 6 -2 -4 -6 -8
leaf_value=0.34049767418999999 -0.37345816902000001 0.049518366269999996 -0.38397622584000002 0.17962850558999999 -0.38485038068999994 -0.086009074980000003 -0.44559673058999999
leaf_weight=0 0 0 0 0 0 0 0
leaf_count=1 1 35 19 459 4 177 51
internal_value=-0.00369193 -0.745445 0.187737 0.425169 -0.978489 0.444035 -0.625138
internal_weight=0 0 0 0 0 0 0
internal_count=747 56 691 2 54 463 228
is_linear=0
shrinkage=0.3


Tree=3
num_leaves=8
num_cat=0
split_feature=24 20 31 12 63 60 40
split_gain=0 0 0 0 0 0 0
threshold=27.17108337144894 0.77140170114817841 0.54648672506535156 0.040491655396715412 1.4467696553172456 0.95790237469877382 -0.053072682361426551
decision_type=0 0 0 0 0 0 0
left_child=1 3 5 -1 -3 -5 -7
right_child=2 4 6 -2 -4 -6 -8
leaf_value=-0.46659856211999995 0.059663954729999996 -0.47905850355000001 0.037916694869999996 0.13577396729999999 -0.31679270091 -0.37592964051 0.31601575250999997
leaf_weight=0 0 0 0 0 0 0 0
leaf_count=47 135 37 1 435 52 40 1
internal_value=-0.00586444 -0.647494 0.201506 -0.245744 -1.28325 0.342136 -0.980801
internal_weight=0 0 0 0 0 0 0
internal_count=748 220 528 182 38 487 41
is_linear=0
shrinkage=0.3


Tree=4
num_leaves=8
num_cat=0
split_feature=67 25 65 31 8 10 32
split_gain=0 0 0 0 0 0 0
threshold=1.1368905539209402 28.549331782937209 0.56817329061340316 0.54233189898109058 -0.00027711722817833713 7.2034529991506613 15.11701382107422
decision_type=0 0 0 0 0 0 0
left_child=1 3 5 -1 -3 -5 -7
right_child=2 4 6 -2 -4 -6 -8
leaf_value=-0.41681824847999999 -0.059880412559999992 -0.51214888322999996 0.34335541532999997 -0.2946396255 0.067395608519999997 -0.11985426108 0.30568828320000002
leaf_weight=0 0 0 0 0 0 0 0
leaf_count=32 9 3 1 161 286 64 190
internal_value=-0.00793496 -0.980218 0.108334 -1.27862 0.493802 -0.0847944 0.68829
internal_weight=0 0 0 0 0 0 0
internal_count=746 45 701 41 4 447 254
is_linear=0
shrinkage=0.3


Tree=5
num_leaves=8
num_cat=0
split_feature=50 30 21 42 31 27 65
split_gain=0 0 0 0 0 0 0
threshold=0.49040879157005479 2.4752582464150867 0.24292809050097655 0.53391938848943421 0.46818580885999994 -1.3575004087670819 0.51171752071706389
decision_type=0 0 0 0 0 0 0
left_child=1 3 5 -1 -3 -5 -7
right_child=2 4 6 -2 -4 -6 -8
leaf_value=0.27967785632999997 -0.52873019645999997 -0.043427564549999999 0.32878360505999998 -0.51430689759000003 -0.16292753397000001 -0.10399868297999999 0.10252128195
leaf_weight=0 0 0 0 0 0 0 0
leaf_count=9 15 19 70 20 98 131 384
internal_value=-0.00788312 0.658317 -0.134614 -0.836898 0.883083 -0.793617 0.0352302
internal_weight=0 0 0 0 0 0 0
internal_count=746 113 633 24 89 118 515
is_linear=0
shrinkage=0.3


Tree=6
num_leaves=8
num_cat=0
split_feature=24 70 32 68 34 18 25
split_gain=0 0 0 0 0 0 0
threshold=31.828753933744654 0.10959682559152172 26.599356812301025 0.43817603706854713 1.8744784143877546 0.083131083340478931 19.420529478822587
decision_type=0 0 0 0 0 0 0
left_child=1 3 5 -1 -3 -5 -7
right_child=2 4 6 -2 -4 -6 -8
leaf_value=0.12229597571999999 -0.16967614676999998 -0.32023776234000001 0.29281545125999997 -0.31017895127999995 0.28410636462 0.60070057551 -0.44688338298000002
leaf_weight=0 0 0 0 0 0 0 0
leaf_count=424 86 197 1 37 1 1 1
internal_value=-0.005268 -0.194693 0.473737 0.0878225 -0.913244 0.704974 -1.37798
internal_weight=0 0 0 0 0 0 0
internal_count=748 708 40 510 198 38 2
is_linear=0
shrinkage=0.3


Tree=7
num_leaves=7
num_cat=0
split_feature=5 34 25 40 27 11
split_gain=0 0 0 0 0 0
threshold=0.45542788084750369 0.11538545317834659 29.046831988234722 -0.070340730695144654 -1.3667594606820219 0.52135604957422643
decision_type=0 0 0 0 0 0
left_child=1 3 5 -2 -4 -6
right_child=2 4 -1 -3 -5 -7
leaf_value=0.3375370311 -0.35469873336000002 0.043864154070000001 -0.11638259510999999 0.14851314993 -0.38276381859000003 0.17262519821999997
leaf_weight=0 0 0 0 0 0 0
leaf_count=1 159 214 50 317 6 1
internal_value=-0.0041249 0.0671357 -1.10417 -0.334838 0.32494 -1.25964
internal_weight=0 0 0 0 0 0
internal_count=748 740 8 373 367 7
is_linear=0
shrinkage=0.3


Tree=8
num_leaves=8
num_cat=0
split_feature=28 48 8 20 65 8 49
split_gain=0 0 0 0 0 0 0
threshold=-0.96038732168232577 1.1351613882403564 -0.00072723750282415508 0.88000117245092913 0.51171752071706389 -0.0028596333831176755 0.98742657245898435
decision_type=0 0 0 0 0 0 0
left_child=1 3 5 -1 -3 -5 -7
right_child=2 4 6 -2 -4 -6 -8
leaf_value=-0.26876386556999998 0.27414714359999998 -0.042430463009999995 0.15579092342999998 -0.49259787944999994 0.17190772917 -0.36566840022000002 0.27305038412999999
leaf_weight=0 0 0 0 0 0 0 0
leaf_count=113 16 122 393 13 41 43 5
internal_value=-0.00622841 0.100028 -0.624963 -0.617056 0.210241 0.123034 -1.05382
internal_weight=0 0 0 0 0 0 0
internal_count=746 644 102 129 515 54 48
is_linear=0
shrinkage=0.3


Tree=9
num_leaves=8
num_cat=0
split_feature=1 5 40 22 25 23 17
split_gain=0 0 0 0 0 0 0
threshold=0.94412040894531257 0.43248220441943358 -0.056658844255825999 20.694653458408776 27.590562646980658 2.8767464863691066 0.064022848570921498
decision_type=0 0 0 0 0 0 0
left_child=1 3 5 -1 -3 -5 -7
right_child=2 4 6 -2 -4 -6 -8
leaf_value=0.30654030653999997 0.01523156394 -0.31866325011000002 0.26995319312999999 0.30631428497999996 -0.47441757776999999 -0.53992872662999991 0.28942105889999997
leaf_weight=0 0 0 0 0 0 0 0
leaf_count=20 651 15 1 3 47 5 5
internal_value=-0.00697316 0.0583864 -0.957752 0.132011 -0.800943 -1.46946 0.262614
internal_weight=0 0 0 0 0 0 0
internal_count=747 687 60 671 16 50 10
is_linear=0
shrinkage=0.3


Tree=10
num_leaves=8
num_cat=0
split_feature=35 40 21 69 36 13 19
split_gain=0 0 0 0 0 0 0
threshold=0.49194060163241371 -0.056658844255825999 0.84780927970019526 0.5658994681406968 0.27046259390850325 0.1654417413409672 1657.9651441017122
decision_type=0 0 0 0 0 0 0
left_child=1 3 5 -1 -3 -5 -7
right_child=2 4 6 -2 -4 -6 -8
leaf_value=-0.51436693499999997 -0.14906777339999999 0.38498723435999999 -0.13629457440000001 0.075360218609999988 -0.24208267208999998 -0.30354047135999995 -0.0070987955099999995
leaf_weight=0 0 0 0 0 0 0 0
leaf_count=45 24 3 19 509 43 65 38
internal_value=-0.00645833 -0.664157 0.0839537 -1.32034 0.151742 0.188791 -0.471203
internal_weight=0 0 0 0 0 0 0
internal_count=746 91 655 69 22 552 103
is_linear=0
shrinkage=0.3


Tree=11
num_leaves=8
num_cat=0
split_feature=49 26 32 23 47 39 25
split_gain=0 0 0 0 0 0 0
threshold=0.96030574398415602 -0.54850245476411819 26.599356812301025 4.0238890051549063 8.0471144394849823 0.70751726492854072 16.684124225478449
decision_type=0 0 0 0 0 0 0
left_child=1 3 5 -1 -3 -5 -7
right_child=2 4 6 -2 -4 -6 -8
leaf_value=0.079718472809999996 -0.13551128345999999 0.079774838340000001 -0.26161824524999999 0.0088549213200000004 0.21838824300000001 0.45132892670999997 -0.41291570708999997
leaf_weight=0 0 0 0 0 0 0 0
leaf_count=168 128 23 117 217 92 1 1
internal_value=-0.00635092 -0.218739 0.230943 -0.0170488 -0.716671 0.304942 -1.21781
internal_weight=0 0 0 0 0 0 0
internal_count=747 436 311 296 140 309 2
is_linear=0
shrinkage=0.3


Tree=12
num_leaves=7
num_cat=0
split_feature=5 40 25 34 62 33
split_gain=0 0 0 0 0 0
threshold=0.45542788084750369 -0.056658844255825999 29.046831988234722 0.1381451982922256 2.2164385068233354 0.0011737225148652766
decision_type=0 0 0 0 0 0
left_child=1 3 5 -2 -4 -6
right_child=2 4 -1 -3 -5 -7
leaf_value=0.28304983935 -0.16021460148 0.051934512179999996 0.26686799912999998 -0.030035867130000001 -0.34632205472999994 0.013279611029999999
leaf_weight=0 0 0 0 0 0 0
leaf_count=1 313 306 11 110 6 1
internal_value=-0.00514521 0.037502 -0.997198 -0.108678 0.374559 -1.13697
internal_weight=0 0 0 0 0 0
internal_count=748 740 8 619 121 7
is_linear=0
shrinkage=0.3


Tree=13
num_leaves=8
num_cat=0
split_feature=65 24 23 61 6 0 27
split_gain=0 0 0 0 0 0 0
threshold=0.51747362629928439 28.964461296879353 4.327843337749 20.66567493285639 0.027399853117478074 0.095425127726859849 -1.2690981147302152
decision_type=0 0 0 0 0 0 0
left_child=1 3 5 -1 -3 -5 -7
right_child=2 4 6 -2 -4 -6 -8
leaf_value=-0.099295887240000005 -0.36487451214 0.064921711979999991 -0.32441949764999994 -0.06009188511 0.21721542035999999 -0.34669245056999998 0.085393159950000005
leaf_weight=0 0 0 0 0 0 0 0
leaf_count=30 99 84 6 80 296 97 54
internal_value=-0.0036012 -0.246854 0.232816 -0.787685 0.0494556 0.47703 -0.479355
internal_weight=0 0 0 0 0 0 0
internal_count=746 219 527 129 90 376 151
is_linear=0
shrinkage=0.3


Tree=14
num_leaves=8
num_cat=0
split_feature=45 28 39 55 68 30 50
split_gain=0 0 0 0 0 0 0
threshold=0.11590838000000001 -1.0001672837695095 0.30015120765507464 13.513822286176833 0.3583469000404883 4.3745524958373103 0.50299182488751804
decision_type=0 0 0 0 0 0 0
left_child=1 3 5 -1 -3 -5 -7
right_child=2 4 6 -2 -4 -6 -8
leaf_value=0.070553074470000005 -0.29077643615999998 0.44022082623000003 -0.38528204763000001 -0.19304498367 0.19051330562999999 0.15514206164999997 -0.064761331679999992
leaf_weight=0 0 0 0 0 0 0 0
leaf_count=2 1 1 1 204 53 328 159
internal_value=-0.00484448 -0.371255 0.110659 -0.0851063 -1.17655 -0.300469 0.300151
internal_weight=0 0 0 0 0 0 0
internal_count=749 5 744 3 2 257 487
is_linear=0
shrinkage=0.3


Tree=15
num_leaves=8
num_cat=0
split_feature=57 21 40 6 1 65 44
split_gain=0 0 0 0 0 0 0
threshold=0.63534675175927724 0.24292809050097655 -0.062319044359199528 0.023620633201266228 0.21434000785959206 0.59069645109458668 0.054491590370163434
decision_type=0 0 0 0 0 0 0
left_child=1 3 5 -1 -3 -5 -7
right_child=2 4 6 -2 -4 -6 -8
leaf_value=-0.027148762650000002 -0.36812177012999997 -0.093821166900000003 0.089071077989999997 -0.43044462363000002 0.27643097403 -0.35494348325999997 0.20954981690999999
leaf_weight=0 0 0 0 0 0 0 0
leaf_count=97 35 117 425 41 4 12 15
internal_value=-0.00531044 0.0456279 -0.798513 -0.371202 0.158977 -1.29389 0.0199383
internal_weight=0 0 0 0 0 0 0
internal_count=746 674 72 132 542 45 27
is_linear=0
shrinkage=0.3


Tree=16
num_leaves=8
num_cat=0
split_feature=47 25 7 12 40 22 69
split_gain=0 0 0 0 0 0 0
threshold=9.4142625381411911 28.549331782937209 1.5216724173036815 0.040491655396715412 -0.056658844255825999 21.451570647561471 0.50943650858865042
decision_type=0 0 0 0 0 0 0
left_child=1 3 5 -1 -3 -5 -7
right_child=2 4 6 -2 -4 -6 -8
leaf_value=-0.13150094838000001 0.19743687725999998 -0.41444482005 0.083299384649999988 0.21335187089999999 -0.19230486477 -0.047887035089999995 0.18505376832000001
leaf_weight=0 0 0 0 0 0 0 0
leaf_count=72 263 34 5 1 169 160 42
internal_value=-0.00632356 0.251078 -0.145177 0.436556 -0.849723 -0.45154 0.185042
internal_weight=0 0 0 0 0 0 0
internal_count=746 374 372 335 39 170 202
is_linear=0
shrinkage=0.3


Tree=17
num_leaves=8
num_cat=0
split_feature=13 68 13 65 2 31 8
split_gain=0 0 0 0 0 0 0
threshold=0.047342153517748065 0.51812241239125334 0.10982327048602125 0.4801856169579396 0.3125438486788511 0.54648672506535156 0.00050219141634368872
decision_type=0 0 0 0 0 0 0
left_child=1 3 5 -1 -3 -5 -7
right_child=2 4 6 -2 -4 -6 -8
leaf_value=-0.42766547958000001 0.30893456513999995 -0.36412211597999999 0.25829109647999998 0.26906724885 -0.18889207626000001 0.01262083407 -0.17286975363000001
leaf_weight=0 0 0 0 0 0 0 0
leaf_count=1 1 1 1 26 2 616 102
internal_value=-0.0047297 -0.613019 0.0483559 -1.25771 0.255442 0.693505 -0.0791325
internal_weight=0 0 0 0 0 0 0
internal_count=750 4 746 2 2 28 718
is_linear=0
shrinkage=0.3


Tree=18
num_leaves=7
num_cat=0
split_feature=5 70 25 36 63 11
split_gain=0 0 0 0 0 0
threshold=0.45542788084750369 0.10342960275293769 29.046831988234722 0.63412651883290039 -1.8480819850050278 0.52135604957422643
decision_type=0 0 0 0 0 0
left_child=1 3 5 -2 -4 -6
right_child=2 4 -1 -3 -5 -7
leaf_value=0.25679372588999999 0.10819746309 -0.23819972550000001 -0.1872097929 0.027687757320000003 -0.33183724277999999 0.094975855619999994
leaf_weight=0 0 0 0 0 0 0
leaf_count=1 357 46 182 155 6 1
internal_value=-0.00299522 0.0288482 -0.94915 0.220631 -0.132243 -1.08988
internal_weight=0 0 0 0 0 0
internal_count=748 740 8 403 337 7
is_linear=0
shrinkage=0.3


Tree=19
num_leaves=8
num_cat=0
split_feature=61 11 35 13 34 9 7
split_gain=0 0 0 0 0 0 0
threshold=7.2176202502476228 0.45267694783575319 0.49194060163241371 0.041314574433686829 0.19760384423227106 3.8817304852625796 3.9085630528153703
decision_type=0 0 0 0 0 0 0
left_child=1 3 5 -1 -3 -5 -7
right_child=2 4 6 -2 -4 -6 -8
leaf_value=-0.33834506049000002 0.34443351785999998 0.23151736583999999 -0.45999162548999994 -0.41408050782 -0.067054477859999989 0.043573953960000002 -0.32575692597
leaf_weight=0 0 0 0 0 0 0 0
leaf_count=1 1 1 1 38 53 632 23
internal_value=-0.00400644 -0.70937 0.0382887 0.640932 -1.1832 -0.531494 0.107295
internal_weight=0 0 0 0 0 0 0
internal_count=750 4 746 2 2 91 655
is_linear=0
shrinkage=0.3


Tree=20
num_leaves=8
num_cat=0
split_feature=65 10 13 15 28 29 33
split_gain=0 0 0 0 0 0 0
threshold=0.59860957255128477 5.0892276763736852 0.1654417413409672 0.51572471876150261 -0.97668196068774227 4.891484773103346 -0.00058764337080991272
decision_type=0 0 0 0 0 0 0
left_child=1 3 5 -1 -3 -5 -7
right_child=2 4 6 -2 -4 -6 -8
leaf_value=0.23404429563000001 -0.33583466010000002 0.033809898209999995 -0.12031452014999999 -0.35165097287999997 0.28674841895999997 -0.58739203952999997 -0.34223327775000001
leaf_weight=0 0 0 0 0 0 0 0
leaf_count=12 79 429 124 6 87 2 7
internal_value=-0.00573014 -0.0595048 0.496981 -0.693998 0.00306123 0.751233 -1.41844
internal_weight=0 0 0 0 0 0 0
internal_count=746 644 102 91 553 93 9
is_linear=0
shrinkage=0.3


Tree=21
num_leaves=7
num_cat=0
split_feature=65 40 60 11 60 54
split_gain=0 0 0 0 0 0
threshold=0.51747362629928439 -0.059064531617187513 0.95790237469877382 0.48766495891971628 0.7472131730887146 -0.015470648940350851
decision_type=0 0 0 0 0 0
left_child=1 3 5 -2 -4 -6
right_child=2 4 -1 -3 -5 -7
leaf_value=-0.36255425567999994 -0.0044184991499999996 -0.28043348369999999 -0.15401752154999998 0.21376448226 -0.15854541918000001 0.1096591578
leaf_weight=0 0 0 0 0 0 0
leaf_count=48 62 122 1 35 68 411
internal_value=-0.00501376 -0.169775 0.15987 -0.375779 0.194352 0.247208
internal_weight=0 0 0 0 0 0
internal_count=747 220 527 184 36 479
is_linear=0
shrinkage=0.3


Tree=22
num_leaves=8
num_cat=0
split_feature=32 49 31 69 50 23 25
split_gain=0 0 0 0 0 0 0
threshold=26.599356812301025 0.95613939156835936 0.50749408281747099 0.4575208844192501 0.49393176961634783 4.327843337749 16.684124225478449
decision_type=0 0 0 0 0 0 0
left_child=1 3 5 -1 -3 -5 -7
right_child=2 4 6 -2 -4 -6 -8
leaf_value=-0.17041385073000001 0.0049412530499999994 0.20454715949999999 0.016388538899999999 0.51088472660999995 -0.20790362861999998 0.22148259017999999 -0.37187651273999994
leaf_weight=0 0 0 0 0 0 0 0
leaf_count=165 228 106 243 2 1 1 1
internal_value=-0.00547961 0.0255347 -0.878359 -0.172436 0.204935 1.10652 -1.16706
internal_weight=0 0 0 0 0 0 0
internal_count=747 742 5 393 349 3 2
is_linear=0
shrinkage=0.3


Tree=23
num_leaves=7
num_cat=0
split_feature=5 22 25 69 23 11
split_gain=0 0 0 0 0 0
threshold=0.45542788084750369 20.694653458408776 29.046831988234722 0.29962024991210934 4.0238890051549063 0.52135604957422643
decision_type=0 0 0 0 0 0
left_child=1 3 5 -2 -4 -6
right_child=2 4 -1 -3 -5 -7
leaf_value=0.22949304632999998 -0.41676531590999999 0.33085237329 0.035784637229999999 -0.080334496079999998 -0.32714866754999999 0.086629474110000007
leaf_weight=0 0 0 0 0 0 0
leaf_count=1 10 10 417 303 6 1
internal_value=-0.00445628 0.0218965 -0.944981 0.695282 -0.0230363 -1.07133
internal_weight=0 0 0 0 0 0
internal_count=748 740 8 20 720 7
is_linear=0
shrinkage=0.3


Tree=24
num_leaves=8
num_cat=0
split_feature=39 20 45 54 69 47 0
split_gain=0 0 0 0 0 0 0
threshold=0.32325484125768439 0.91314496720245364 0.14795280507067873 -0.0076032415625230032 0.5944577340439714 17.701462919843767 0.1150453088861214
decision_type=0 0 0 0 0 0 0
left_child=1 3 5 -1 -3 -5 -7
right_child=2 4 6 -2 -4 -6 -8
leaf_value=-0.29952643769999998 -0.050395409250000002 0.42701212307999997 -0.18359552895 -0.2154348975 0.047820619710000005 0.17243569398 -0.0096027808799999999
leaf_weight=0 0 0 0 0 0 0 0
leaf_count=65 213 3 1 1 1 228 236
internal_value=-0.00318986 -0.237804 0.102404 -0.33225 1.11555 -0.298939 0.278604
internal_weight=0 0 0 0 0 0 0
internal_count=748 282 466 278 4 2 464
is_linear=0
shrinkage=0.3


Tree=25
num_leaves=8
num_cat=0
split_feature=53 14 34 56 2 52 38
split_gain=0 0 0 0 0 0 0
threshold=6.1116514769306693 0.28940317188143261 0.16352514614374028 3.4109596370186273 0.66218452237935721 0.4212091442107333 0.50981487446426388
decision_type=0 0 0 0 0 0 0
left_child=1 3 5 -1 -3 -5 -7
right_child=2 4 6 -2 -4 -6 -8
leaf_value=-0.051234575910000003 0.10317502788000001 0.36942268422000002 -0.20042116734000001 -0.32046535242000002 0.083600300009999989 -0.077751645659999993 0.11635917965999999
leaf_weight=0 0 0 0 0 0 0 0
leaf_count=270 163 52 1 92 37 76 56
internal_value=-0.00209481 0.136721 -0.178644 0.0412071 1.18902 -0.66358 0.0122967
internal_weight=0 0 0 0 0 0 0
internal_count=747 486 261 433 53 129 132
is_linear=0
shrinkage=0.3


Tree=26
num_leaves=8
num_cat=0
split_feature=21 69 11 1 13 44 9
split_gain=0 0 0 0 0 0 0
threshold=0.84780927970019526 0.62203279994699412 0.49177604322167962 0.94412040894531257 0.097355959045654306 0.10660614812948896 7.1492812744109457
decision_type=0 0 0 0 0 0 0
left_child=1 3 5 -1 -3 -5 -7
right_child=2 4 6 -2 -4 -6 -8
leaf_value=0.04357335171 -0.25794971900999997 0.30621543827999997 -0.41039455805999997 -0.32042255162999994 0.27655239317999997 -0.11753731067999999 0.26917893909000001
leaf_weight=0 0 0 0 0 0 0 0
leaf_count=580 38 1 7 47 1 60 14
internal_value=-0.000886909 0.0702102 -0.357648 0.106125 -0.961989 -0.801322 -0.020219
internal_weight=0 0 0 0 0 0 0
internal_count=748 626 122 618 8 48 74
is_linear=0
shrinkage=0.3


Tree=27
num_leaves=7
num_cat=0
split_feature=13 68 13 32 61 20
split_gain=0 0 0 0 0 0
threshold=0.047342153517748065 0.48830785942431498 0.10982327048602125 24.937477313133954 7.2176202502476228 0.73266533856205418
decision_type=0 0 0 0 0 0
left_child=1 -1 4 -2 -4 -6
right_child=2 3 5 -3 -5 -7
leaf_value=-0.40116444425999997 0.18113032193999998 -0.22559793633 -0.17255063045999999 0.21740542353 0.051824564009999997 -0.076812838289999991
leaf_weight=0 0 0 0 0 0 0
leaf_count=1 1 1 1 28 448 270
internal_value=-0.00245663 -0.520296 0.0444177 -0.076683 0.514754 -0.0438949
internal_weight=0 0 0 0 0 0
internal_count=750 3 747 2 29 718
is_linear=0
shrinkage=0.3


Tree=28
num_leaves=7
num_cat=0
split_feature=9 48 31 26 39 27
split_gain=0 0 0 0 0 0
threshold=2.9034831815876787 1.9228314249607372 0.54648672506535156 -0.71125384084783139 0.30015120765507464 -1.0884616621777343
decision_type=0 0 0 0 0 0
left_child=1 3 4 -2 -4 -6
right_child=2 -1 5 -3 -5 -7
leaf_value=0.45073211975999994 0.24181257044999999 -0.37156063457999999 -0.061112470919999995 0.059204508089999996 -0.17716687746000001 0.42558018950999998
leaf_weight=0 0 0 0 0 0 0
leaf_count=2 2 35 218 432 57 1
internal_value=-0.0019504 -0.831215 0.0265513 -1.12105 0.0843463 -0.405396
internal_weight=0 0 0 0 0 0
internal_count=747 39 708 37 650 58
is_linear=0
shrinkage=0.3


Tree=29
num_leaves=8
num_cat=0
split_feature=0 54 29 59 47 50 7
split_gain=0 0 0 0 0 0 0
threshold=0.11161746569953196 -0.012655416273437496 5.3192487466504677 418.38702581226607 11.280613297657485 0.48782536031291845 2.994641339472409
decision_type=0 0 0 0 0 0 0
left_child=1 3 5 -1 -3 -5 -7
right_child=2 4 6 -2 -4 -6 -8
leaf_value=-0.23101206990000001 0.21938896176 0.12033811794 -0.09292805841 0.29891948390999995 -0.45829170482999998 0.032899249079999998 -0.22621762053
leaf_weight=0 0 0 0 0 0 0 0
leaf_count=67 11 309 31 1 47 218 62
internal_value=-0.00166116 0.148191 -0.148212 -0.460968 0.255591 -1.37876 -0.0118934
internal_weight=0 0 0 0 0 0 0
internal_count=746 418 328 78 340 48 280
is_linear=0
shrinkage=0.3


end of trees

feature_importances:

parameters:
[boosting: gbdt]
[objective: binary]
[num_iterations: 30]
[learning_rate: 0.3]
[max_depth: 3]
[max_bin: 32]
[use_missing: 0]
[zero_as_missing: 0]
[num_class: 1]
[lambda_l1: 0.1]
[lambda_l2: 0.0]
[min_data_in_leaf: 1]
[min_gain_to_split: 0.001]

end of parameters

pandas_categorical:[]
