tree
version=v3
num_class=1
num_tree_per_iteration=1
label_index=0
max_feature_idx=73
objective=binary sigmoid:1
feature_names=29 106 110 112 261 262 364 408 409 540 615 714 768 783 861 1109 1257 1267 1389 1410 1428 1488 1512 1524 1650 1659 1749 1755 1791 1837 1932 1967 2065 2225 2305 2398 2702 2748 2751 2752 3051 3516 3529 3544 3595 3657 3701 3725 3932 4167 4242 4354 4513 4540 4633 4643 4678 4843 4859 4919 5172 5236 5286 5340 5383 5427 5443 5451 5756 5785 5957 5989 6043 6254
feature_infos=[0:1] [0:1] [0:1] [0:1] [0:1] [0:1] [0:1] [0:1] [0:1] [0:1] [0:1] [0:1] [0:1] [0:1] [0:1] [0:1] [0:1] [0:1] [0:1] [0:1] [0:1] [0:1] [0:1] [0:1] [0:1] [0:1] [0:1] [0:1] [0:1] [0:1] [0:1] [0:1] [0:1] [0:1] [0:1] [0:1] [0:1] [0:1] [0:1] [0:1] [0:1] [0:1] [0:1] [0:1] [0:1] [0:1] [0:1] [0:1] [0:1] [0:1] [0:1] [0:1] [0:1] [0:1] [0:1] [0:1] [0:1] [0:1] [0:1] [0:1] [0:1] [0:1] [0:1] [0:1] [0:1] [0:1] [0:1] [0:1] [0:1] [0:1] [0:1] [0:1] [0:1] [0:1]
tree_sizes=721 667 659 668 707

Tree=0
num_leaves=8
num_cat=0
split_feature=23 20 30 23 34 58 9
split_gain=0 0 0 0 0 0 0
threshold=26.929084007028482 0.03533500442932129 4.7199564663955682 25.840087988070657 0.74636409989062491 0.00035416783455922041 2.7929007795194809
decision_type=0 0 0 0 0 0 0
left_child=1 3 5 -1 -3 -5 -7
right_child=2 4 6 -2 -4 -6 -8
leaf_value=0.24324324323999996 -0.54545454545999994 0.58551307845 -0.52941176471999996 -0.36842105265000002 0.57142857140999992 0.29813664594 -0.25925925926999999
leaf_weight=0 0 0 0 0 0 0 0
leaf_count=4 2 50 1 88 7 31 16
internal_value=0.0350526 1.64021 -0.600559 -0.175439 1.83594 -1.09244 0.373444
internal_weight=0 0 0 0 0 0 0
internal_count=199 57 142 6 51 95 47
is_linear=0
shrinkage=0.3


Tree=1
num_leaves=7
num_cat=0
split_feature=23 10 8 21 20 55
split_gain=0 0 0 0 0 0
threshold=29.637193332823948 -2.4056862601641313 0.060807503492187498 0.010022615290217553 0.012161184334869386 0.81953336064062499
decision_type=0 0 0 0 0 0
left_child=1 3 5 -2 -4 -6
right_child=2 4 -1 -3 -5 -7
leaf_value=0.58393144679999998 0.29428951673999998 -0.34981706328000001 -0.18489954482999998 0.39889489100999997 0.054300127230000002 -0.37078011923999998
leaf_weight=0 0 0 0 0 0 0
leaf_count=5 7 16 4 72 19 76
internal_value=0.028219 0.767635 -0.774072 -0.467845 1.2118 -0.913963
internal_weight=0 0 0 0 0 0
internal_count=199 99 100 23 76 95
is_linear=0
shrinkage=0.3


Tree=2
num_leaves=7
num_cat=0
split_feature=23 12 2 50 56 50
split_gain=0 0 0 0 0 0
threshold=26.929084007028482 0.56910869420043941 0.34998873274078501 0.0024898077329101563 3.3276866943359377e-05 0.00064576295401866813
decision_type=0 0 0 0 0 0
left_child=1 3 4 -2 -4 -6
right_child=2 -1 5 -3 -5 -7
leaf_value=-0.41275186113000001 0.37780173741 -0.33582450984000001 -0.30738280698000003 0.43697313032999996 0.26141841747 -0.19419291990000001
leaf_weight=0 0 0 0 0 0 0
leaf_count=1 55 2 76 9 36 21
internal_value=0.023238 1.10331 -0.359076 1.18245 -0.823788 0.268929
internal_weight=0 0 0 0 0 0
internal_count=200 58 142 57 85 57
is_linear=0
shrinkage=0.3


Tree=3
num_leaves=7
num_cat=0
split_feature=12 7 43 15 44 33
split_gain=0 0 0 0 0 0
threshold=0.5628404519605712 0.34830569182830295 5.2662162577955201 0.50671499691101074 0.32840446417968749 0.50815788594439115
decision_type=0 0 0 0 0 0
left_child=1 3 5 -2 -4 -6
right_child=2 4 -1 -3 -5 -7
leaf_value=0.38094495335999995 0.30087305150999999 -0.099543392339999995 0.46526755982999995 0.040180443959999999 -0.37412020067999996 0.23531555970000001
leaf_weight=0 0 0 0 0 0 0
leaf_count=1 32 85 34 10 37 1
internal_value=0.0201498 0.337444 -1.07417 -0.000461034 1.32124 -1.16205
internal_weight=0 0 0 0 0 0
internal_count=200 161 39 117 44 38
is_linear=0
shrinkage=0.3


Tree=4
num_leaves=8
num_cat=0
split_feature=43 42 40 35 18 20 1
split_gain=0 0 0 0 0 0 0
threshold=5.198452896306855 -1.3287124334939384 0.39486751614253623 0.75833164703149414 2.5479868990996097 0.012161184334869386 3.0654492678217697
decision_type=0 0 0 0 0 0 0
left_child=1 3 5 -1 -3 -5 -7
right_child=2 4 6 -2 -4 -6 -8
leaf_value=0.32610958511999993 -0.25968527376 -0.23538353499 0.14860438461 -0.18564534546 0.39965072003999996 0.25294548560999996 -0.45303822713999997
leaf_weight=0 0 0 0 0 0 0 0
leaf_count=34 8 94 32 1 27 2 1
internal_value=0.0199618 -0.19952 1.09039 0.672966 -0.489725 1.25478 -0.86556
internal_weight=0 0 0 0 0 0 0
internal_count=199 168 31 42 126 28 3
is_linear=0
shrinkage=0.3


end of trees

feature_importances:

parameters:
[boosting: gbdt]
[objective: binary]
[num_iterations: 5]
[learning_rate: 0.3]
[max_depth: 3]
[max_bin: 32]
[use_missing: 0]
[zero_as_missing: 0]
[num_class: 1]
[lambda_l1: 0.1]
[lambda_l2: 0.0]
[min_data_in_leaf: 1]
[min_gain_to_split: 0.001]

end of parameters

pandas_categorical:[]
